<?xml version="1.0"?>
<opencv_storage>
<stage1>
  <maxWeakCount>5</maxWeakCount>
  <stageThreshold>-7.5868213176727295e-01</stageThreshold>
  <weakClassifiers>
    <_>
      <internalNodes>
        0 -1 3948 2.6844317093491554e-02</internalNodes>
      <leafValues>
        -4.0139210224151611e-01 8.4491115808486938e-01</leafValues></_>
    <_>
      <internalNodes>
        0 -1 54914 1.9778657704591751e-02</internalNodes>
      <leafValues>
        -2.6456162333488464e-01 8.2999956607818604e-01</leafValues></_>
    <_>
      <internalNodes>
        0 -1 30192 -6.4252346754074097e-02</internalNodes>
      <leafValues>
        -9.3948572874069214e-01 3.5095572471618652e-01</leafValues></_>
    <_>
      <internalNodes>
        0 -1 41667 4.0195159614086151e-02</internalNodes>
      <leafValues>
        2.7718722820281982e-01 -9.2646968364715576e-01</leafValues></_>
    <_>
      <internalNodes>
        0 -1 65236 2.4440330453217030e-03</internalNodes>
      <leafValues>
        -5.5033582448959351e-01 4.8278552293777466e-01</leafValues></_></weakClassifiers></stage1>
</opencv_storage>
