<?xml version="1.0"?>
<opencv_storage>
<stage10>
  <maxWeakCount>9</maxWeakCount>
  <stageThreshold>-6.5802377462387085e-01</stageThreshold>
  <weakClassifiers>
    <_>
      <internalNodes>
        0 -1 71587 -8.1839084625244141e-02</internalNodes>
      <leafValues>
        7.7891159057617188e-01 -2.3376622796058655e-01</leafValues></_>
    <_>
      <internalNodes>
        0 -1 58445 2.5882236659526825e-03</internalNodes>
      <leafValues>
        -3.5922342538833618e-01 5.5774354934692383e-01</leafValues></_>
    <_>
      <internalNodes>
        0 -1 30255 -9.1097806580364704e-04</internalNodes>
      <leafValues>
        4.3152123689651489e-01 -4.1586679220199585e-01</leafValues></_>
    <_>
      <internalNodes>
        0 -1 67956 -8.5280320490710437e-05</internalNodes>
      <leafValues>
        -7.0462429523468018e-01 2.8562635183334351e-01</leafValues></_>
    <_>
      <internalNodes>
        0 -1 70442 1.0168726294068620e-04</internalNodes>
      <leafValues>
        2.9154866933822632e-01 -6.1079102754592896e-01</leafValues></_>
    <_>
      <internalNodes>
        0 -1 31702 3.4300364553928375e-02</internalNodes>
      <leafValues>
        1.2148579955101013e-01 -8.6844199895858765e-01</leafValues></_>
    <_>
      <internalNodes>
        0 -1 25125 -5.9361770749092102e-02</internalNodes>
      <leafValues>
        -9.6492397785186768e-01 1.4543481171131134e-01</leafValues></_>
    <_>
      <internalNodes>
        0 -1 67344 1.5476382104679942e-03</internalNodes>
      <leafValues>
        -4.6454033255577087e-01 3.4461241960525513e-01</leafValues></_>
    <_>
      <internalNodes>
        0 -1 42347 -1.5292072668671608e-02</internalNodes>
      <leafValues>
        -7.4111533164978027e-01 2.0732694864273071e-01</leafValues></_></weakClassifiers></stage10>
</opencv_storage>
