<?xml version="1.0"?>
<opencv_storage>
<stage12>
  <maxWeakCount>9</maxWeakCount>
  <stageThreshold>-7.8559547662734985e-01</stageThreshold>
  <weakClassifiers>
    <_>
      <internalNodes>
        0 -1 3404 5.2512221038341522e-02</internalNodes>
      <leafValues>
        -2.0997920632362366e-01 7.9261863231658936e-01</leafValues></_>
    <_>
      <internalNodes>
        0 -1 73182 -2.9328702948987484e-03</internalNodes>
      <leafValues>
        5.4928117990493774e-01 -3.9035475254058838e-01</leafValues></_>
    <_>
      <internalNodes>
        0 -1 63975 -8.6184795945882797e-03</internalNodes>
      <leafValues>
        -7.9148626327514648e-01 3.0898815393447876e-01</leafValues></_>
    <_>
      <internalNodes>
        0 -1 45351 2.9541805386543274e-02</internalNodes>
      <leafValues>
        -3.2333776354789734e-01 6.2730777263641357e-01</leafValues></_>
    <_>
      <internalNodes>
        0 -1 42074 -6.9908928126096725e-03</internalNodes>
      <leafValues>
        -6.9022208452224731e-01 2.7629804611206055e-01</leafValues></_>
    <_>
      <internalNodes>
        0 -1 24172 8.0985203385353088e-03</internalNodes>
      <leafValues>
        -3.2851853966712952e-01 5.6479179859161377e-01</leafValues></_>
    <_>
      <internalNodes>
        0 -1 27066 6.3968719914555550e-03</internalNodes>
      <leafValues>
        -3.2710883021354675e-01 5.4776269197463989e-01</leafValues></_>
    <_>
      <internalNodes>
        0 -1 19753 -2.8934009373188019e-02</internalNodes>
      <leafValues>
        -8.6158549785614014e-01 2.3934537172317505e-01</leafValues></_>
    <_>
      <internalNodes>
        0 -1 60530 1.3230062904767692e-04</internalNodes>
      <leafValues>
        2.2155916690826416e-01 -6.5039479732513428e-01</leafValues></_></weakClassifiers></stage12>
</opencv_storage>
