<?xml version="1.0"?>
<opencv_storage>
<stage5>
  <maxWeakCount>7</maxWeakCount>
  <stageThreshold>-5.4049962759017944e-01</stageThreshold>
  <weakClassifiers>
    <_>
      <internalNodes>
        0 -1 34032 -4.7510512173175812e-02</internalNodes>
      <leafValues>
        7.6948052644729614e-01 -2.8571429848670959e-01</leafValues></_>
    <_>
      <internalNodes>
        0 -1 54930 2.9704945161938667e-02</internalNodes>
      <leafValues>
        -2.6645225286483765e-01 6.7689859867095947e-01</leafValues></_>
    <_>
      <internalNodes>
        0 -1 38968 8.9551229029893875e-04</internalNodes>
      <leafValues>
        -4.4944518804550171e-01 4.7805660963058472e-01</leafValues></_>
    <_>
      <internalNodes>
        0 -1 48388 -7.0830238983035088e-03</internalNodes>
      <leafValues>
        -8.6233013868331909e-01 2.4884624779224396e-01</leafValues></_>
    <_>
      <internalNodes>
        0 -1 41664 -2.3079801350831985e-02</internalNodes>
      <leafValues>
        -8.8406097888946533e-01 1.7173501849174500e-01</leafValues></_>
    <_>
      <internalNodes>
        0 -1 50483 1.9166661659255624e-03</internalNodes>
      <leafValues>
        -4.1152343153953552e-01 4.9466925859451294e-01</leafValues></_>
    <_>
      <internalNodes>
        0 -1 39836 8.3912173286080360e-03</internalNodes>
      <leafValues>
        -3.0762204527854919e-01 7.6653218269348145e-01</leafValues></_></weakClassifiers></stage5>
</opencv_storage>
