<?xml version="1.0"?>
<opencv_storage>
<stage3>
  <maxWeakCount>5</maxWeakCount>
  <stageThreshold>-4.8088204860687256e-01</stageThreshold>
  <weakClassifiers>
    <_>
      <internalNodes>
        0 -1 75662 -1.8836181610822678e-02</internalNodes>
      <leafValues>
        8.4419715404510498e-01 -4.2992874979972839e-01</leafValues></_>
    <_>
      <internalNodes>
        0 -1 40275 3.6730527877807617e-02</internalNodes>
      <leafValues>
        -2.4397423863410950e-01 8.7284308671951294e-01</leafValues></_>
    <_>
      <internalNodes>
        0 -1 47851 1.7628278583288193e-02</internalNodes>
      <leafValues>
        3.9232844114303589e-01 -6.8636786937713623e-01</leafValues></_>
    <_>
      <internalNodes>
        0 -1 50697 -5.4803401231765747e-02</internalNodes>
      <leafValues>
        -9.2204958200454712e-01 2.4782665073871613e-01</leafValues></_>
    <_>
      <internalNodes>
        0 -1 4871 7.7288327738642693e-03</internalNodes>
      <leafValues>
        -3.6979982256889343e-01 6.3156211376190186e-01</leafValues></_></weakClassifiers></stage3>
</opencv_storage>
