<?xml version="1.0"?>
<opencv_storage>
<stage18>
  <maxWeakCount>10</maxWeakCount>
  <stageThreshold>-1.2007695436477661e+00</stageThreshold>
  <weakClassifiers>
    <_>
      <internalNodes>
        0 -1 45351 1.8888043239712715e-02</internalNodes>
      <leafValues>
        -2.1658986806869507e-01 7.2077924013137817e-01</leafValues></_>
    <_>
      <internalNodes>
        0 -1 76126 4.9614422023296356e-03</internalNodes>
      <leafValues>
        -3.6442083120346069e-01 5.3083956241607666e-01</leafValues></_>
    <_>
      <internalNodes>
        0 -1 70971 5.8932433603331447e-05</internalNodes>
      <leafValues>
        3.3335027098655701e-01 -5.9231108427047729e-01</leafValues></_>
    <_>
      <internalNodes>
        0 -1 39810 -1.1666266247630119e-02</internalNodes>
      <leafValues>
        9.0167689323425293e-01 -1.9840502738952637e-01</leafValues></_>
    <_>
      <internalNodes>
        0 -1 59651 1.3870079419575632e-04</internalNodes>
      <leafValues>
        3.2406044006347656e-01 -5.7861644029617310e-01</leafValues></_>
    <_>
      <internalNodes>
        0 -1 38997 -1.1311694979667664e-03</internalNodes>
      <leafValues>
        3.3398312330245972e-01 -5.1116460561752319e-01</leafValues></_>
    <_>
      <internalNodes>
        0 -1 55781 -4.5477435924112797e-04</internalNodes>
      <leafValues>
        -5.8744674921035767e-01 2.6608991622924805e-01</leafValues></_>
    <_>
      <internalNodes>
        0 -1 64058 -5.1965629681944847e-03</internalNodes>
      <leafValues>
        -6.6775923967361450e-01 2.3226532340049744e-01</leafValues></_>
    <_>
      <internalNodes>
        0 -1 76412 -6.1875078245066106e-05</internalNodes>
      <leafValues>
        -4.5260354876518250e-01 3.3352464437484741e-01</leafValues></_>
    <_>
      <internalNodes>
        0 -1 58429 -1.2064422480762005e-04</internalNodes>
      <leafValues>
        -6.1335164308547974e-01 2.9730510711669922e-01</leafValues></_></weakClassifiers></stage18>
</opencv_storage>
